{"layers":[{"type":0,"units":10,"weights":[[0.046753136759289236,0.14485398730859628,0.3789883125964384,-0.04419608701116345,-0.20183372260854887,-0.3638056199892109,-0.5164102114362338,0.3960733654677196,-0.051151617309654784,-0.23233775388859831],[0.291465838337854,-0.26780689499802895,-0.5183409294146062,-0.26783725656399093,0.1503320930563712,-0.25607668622278623,-0.0368572737691604,-0.13151170617834348,0.015145767712100404,0.3185220730460119],[0.46608642358370916,-0.20088928443665466,-0.28950669799474915,0.16867351468435082,0.08469386860311787,0.3433686579629248,-0.24089697528510132,-0.4523755245223037,-0.17746592582933482,-0.07015867099103945]],"bias":[0.2859827303794123,-0.14083216806114454,0.2825327844540928,0.14395092912171834,-0.10045935634098395,-0.18323123826743065,0.18124314667453675,-0.195981084870556,-0.06496733272442572,-0.3108647960122089]},{"type":1,"units":10},{"type":0,"units":8,"weights":[[-0.3298661395021154,0.07888027591214186,0.09774735485564578,-0.19076498228000277,0.1511531296029723,0.04038134401636653,-0.28928827745435814,0.20549686272152728],[0.32303745444778376,0.4857669937276256,-0.38406308308907083,0.3531127062756243,0.02160900933270633,-0.09710204701762448,-0.3760538506867359,-0.3155559248542386],[-0.2675867774210007,-0.18290605959903075,0.4683122416550962,-0.1919216219964101,0.37417213387399745,-0.02459824290947536,-0.38229644389099254,0.22226539825096295],[-0.396910862344052,-0.3626432678803548,0.1506221594354508,0.08297977206344882,0.3777318763801432,-0.13899065555727108,0.09034631920995251,-0.26286391008659904],[0.3218497570958703,0.5390708296371529,-0.0025798249906565725,-0.10708211823603729,0.2230109268228659,-0.0071355383805882435,0.19198349805701295,0.06553182781373741],[0.31794605868436143,-0.24381545481567385,0.08488228215504225,0.674953057171921,-0.21664950411704129,-0.3478141593249159,0.12631015346503413,-0.16105676973423624],[0.2995152183419619,0.07699887561216429,-0.03269743799185537,-0.08201728298566269,0.3317070977847571,0.12740164801454398,-0.08485910314266447,-0.5589704961440063],[0.472667476086044,-0.0023550675274021694,0.5658396094902972,0.2813092273610025,-0.5781247004892313,-0.013458122527322017,0.2835396605169033,-0.4077403974136471],[0.16365259606502486,0.6085090444328822,0.5175636263834769,-0.26471879473214516,0.10459647818506293,0.28341159102363433,-0.5045067782635503,-0.08099448788809564],[-0.17912718959439478,-0.4176275095427918,0.44496014152636804,-0.22364092955261855,0.1532336494038966,0.23018149090882375,0.4654759618961132,0.17877860568997908]],"bias":[0.22788892217970888,0.10899187160298136,-0.44227987595181273,-0.020870379519330736,-0.19461101164058406,0.2560931800419181,0.21664363006049592,0.43055044377940294]},{"type":1,"units":8},{"type":0,"units":1,"weights":[[0.0426218781073154],[-0.1697844368762338],[-0.2880446813644819],[0.07018374680378536],[-0.1533311967503079],[-0.1789970878045067],[0.4011563478081362],[-0.3892124258967856]],"bias":[0.6160511892598134]},{"type":1,"units":1}]}